//Numpy array shape [8, 8]
//Min -2.927246093750
//Max 1.151855468750
//Number of zeros 0

#ifndef W4_H_
#define W4_H_

#ifdef __INTELFPGA_COMPILER__
hls_init_on_powerup
#endif
static const weight4_t w4[64] = {-0.44091796875, -0.01855468750, -0.21289062500, -0.51611328125, -0.49707031250, 0.32714843750, -0.30664062500, -0.37646484375, -0.50976562500, 0.50732421875, 1.02050781250, -0.98681640625, 0.81494140625, 0.36279296875, -0.32080078125, 0.13720703125, 0.61816406250, -0.83789062500, 0.99462890625, 0.21484375000, 0.79443359375, 0.70703125000, 0.15917968750, -2.91748046875, -0.58007812500, 0.55761718750, 0.14990234375, -1.00781250000, 0.48242187500, -0.41943359375, -0.55566406250, -0.22656250000, 0.74414062500, 0.30078125000, -0.15332031250, 1.15185546875, -0.69091796875, 0.52685546875, 0.59619140625, 0.18017578125, -0.63671875000, 0.24365234375, 0.69824218750, -1.07763671875, 0.64306640625, -0.51660156250, 0.04443359375, 0.28076171875, 0.07470703125, -0.32861328125, 0.29394531250, -0.24121093750, -0.34716796875, 0.38330078125, -0.46435546875, 0.02978515625, 0.58398437500, -0.74072265625, 0.52392578125, -0.23437500000, 0.70800781250, -0.32910156250, 0.33251953125, -2.92724609375};

#endif
