//Numpy array shape [8, 8]
//Min -1.121653676033
//Max 1.370307564735
//Number of zeros 0

#ifndef RECURRENT_KERNEL_2_H_
#define RECURRENT_KERNEL_2_H_

#ifdef __INTELFPGA_COMPILER__
hls_init_on_powerup
#endif
static const model_default_t recurrent_kernel_2[64] = {0.0947943330, -0.1852432936, -0.2962962091, 0.1350782067, 0.0049428809, 0.2058303058, 0.1244543940, 0.4816954434, 0.3696624637, -0.3806389272, 0.1853205860, 0.1171056181, -0.3233639300, -0.7272434235, -0.6023035645, 0.0928197503, -0.0424756594, -0.4556465745, 0.6696556211, -0.0979451612, -0.0632363409, -0.7421126962, -0.5287691951, -1.0929484367, -0.5357720852, 0.4323291779, -1.1216536760, -0.5856422782, 0.1454170048, 0.7340499163, 0.4121493697, 0.9304875135, -0.5603795052, 0.8217191696, -0.4862974882, -0.1366817057, 0.1288965791, -0.1147130877, -0.0986072496, -0.3496935964, 0.7661477327, 0.5094898939, -0.2986107469, 0.3938587308, -0.1448468417, -0.1870066226, -0.3140003979, -0.3191789389, 1.3703075647, 0.7916046977, 0.5832021832, 0.0409283042, 0.4853311777, 0.3796647787, -0.3277292252, 0.7147527337, -0.6976975799, 0.2508952320, -0.2446057647, 0.1071657538, 0.2570221722, -0.0552576669, -0.0317576304, 0.9789939523};

#endif
