//Numpy array shape [8, 8]
//Min -0.650595426559
//Max 0.797277212143
//Number of zeros 0

#ifndef RECURRENT_KERNEL_2_H_
#define RECURRENT_KERNEL_2_H_

#ifdef __INTELFPGA_COMPILER__
hls_init_on_powerup
#endif
static const model_default_t recurrent_kernel_2[64] = {0.1379885674, 0.0282945521, -0.3835456371, 0.5238207579, 0.3906899691, 0.4661416709, 0.3955804110, 0.1795900762, -0.3053579330, 0.0140019730, 0.6944099069, 0.0981802046, 0.4607730806, 0.2703221440, 0.0375474319, -0.3576593399, 0.7972772121, 0.4851095378, 0.2223475575, -0.0416077673, 0.0612433851, 0.1335677058, -0.2214991748, -0.0848241895, -0.2768151164, 0.5453969240, -0.1823820174, -0.6505954266, 0.2361048460, 0.1649574339, 0.2336754203, 0.1783742905, -0.1478138864, 0.5580844879, 0.1330410838, 0.4181223512, -0.2131073773, -0.4956255555, 0.4195913672, -0.0839658454, -0.2155193835, 0.2378275990, -0.3187605739, 0.0976578966, -0.4106997252, 0.4357452691, -0.2064920068, -0.6202072501, -0.2904917598, 0.2566033602, 0.2205992639, 0.2738626301, -0.2308107913, 0.2779162824, -0.4499630332, 0.6269982457, -0.1508480310, 0.1798572093, -0.3464297652, 0.1777721345, 0.5551493168, -0.3896544576, -0.5632742047, -0.1264148206};

#endif
