//Numpy array shape [26, 26]
//Min -2.344726562500
//Max 0.711425781250
//Number of zeros 0

#ifndef W4_H_
#define W4_H_

#ifdef __INTELFPGA_COMPILER__
hls_init_on_powerup
#endif
static const weight4_t w4[676] = {0.38916015625, 0.33007812500, -0.17968750000, -0.03466796875, 0.36523437500, 0.22705078125, 0.02978515625, 0.30615234375, -2.34472656250, 0.39892578125, -0.32080078125, 0.26367187500, -0.09277343750, 0.38134765625, -0.10156250000, -0.27734375000, -0.10107421875, 0.00830078125, 0.31445312500, 0.16015625000, -0.12255859375, -0.09667968750, -0.06982421875, -0.25976562500, 0.05712890625, -0.06152343750, -0.06298828125, -0.17333984375, 0.07324218750, 0.13964843750, -0.41650390625, 0.10839843750, 0.37744140625, -0.60546875000, 0.04882812500, -0.27343750000, -0.04052734375, 0.21582031250, -0.41259765625, 0.09423828125, -0.13476562500, -0.49365234375, -0.50927734375, -0.57666015625, -0.55175781250, 0.50244140625, -0.74267578125, -0.17529296875, -0.37207031250, -0.25000000000, -0.16796875000, -0.07226562500, -0.08056640625, -0.06591796875, -0.11474609375, 0.15527343750, 0.41406250000, 0.13525390625, 0.15771484375, -0.38134765625, 0.01953125000, -0.29736328125, 0.04687500000, 0.28320312500, 0.14501953125, -0.06738281250, -0.17236328125, -0.39111328125, -0.17578125000, 0.26416015625, -0.16406250000, 0.06982421875, -0.59179687500, -0.05957031250, 0.23974609375, -0.04980468750, 0.22607421875, -0.30126953125, 0.13623046875, -0.22558593750, -0.35791015625, 0.08447265625, 0.03076171875, -0.09716796875, -0.26953125000, 0.39697265625, 0.34619140625, -0.30029296875, -0.12207031250, -0.08398437500, 0.11523437500, 0.07519531250, -0.02343750000, 0.15234375000, -0.43505859375, 0.09521484375, 0.09082031250, -0.24414062500, 0.17187500000, 0.34960937500, 0.17431640625, 0.35595703125, -0.02734375000, 0.24316406250, -0.32373046875, -0.19287109375, 0.09716796875, -0.03710937500, 0.06835937500, -0.19726562500, -0.22509765625, -0.17724609375, -0.25097656250, 0.22070312500, 0.45751953125, 0.40332031250, -0.06152343750, 0.27246093750, -0.33105468750, 0.22753906250, 0.26416015625, -0.24755859375, 0.33886718750, -0.18798828125, 0.15039062500, 0.14599609375, 0.47558593750, 0.41210937500, -0.14941406250, 0.11962890625, 0.20507812500, 0.34863281250, 0.21728515625, 0.27050781250, 0.34912109375, 0.25000000000, -0.00097656250, -0.18554687500, -1.73730468750, -0.12792968750, 0.29150390625, 0.25146484375, 0.17626953125, 0.05712890625, -0.10400390625, 0.00927734375, 0.18212890625, 0.19824218750, 0.18017578125, -0.32861328125, -0.10400390625, -0.27734375000, -0.31005859375, 0.26562500000, 0.08349609375, -0.09423828125, -0.24462890625, -0.28320312500, -0.07519531250, 0.09570312500, 0.11816406250, -0.05664062500, -0.16748046875, 0.38964843750, 0.17138671875, 0.27783203125, 0.25781250000, 0.34716796875, 0.41162109375, 0.10156250000, 0.04931640625, 0.18750000000, 0.03857421875, -0.24414062500, 0.10986328125, -0.08544921875, 0.42871093750, -0.04296875000, 0.18310546875, 0.55175781250, 0.23828125000, -0.14941406250, -0.09130859375, -0.09863281250, -0.35400390625, -0.23144531250, -0.12255859375, 0.03759765625, 0.21533203125, -0.61962890625, 0.10107421875, 0.12548828125, -0.09667968750, -0.06982421875, -0.44873046875, 0.15087890625, -0.03076171875, -0.45605468750, -0.09814453125, -0.52294921875, -0.17480468750, 0.56494140625, -0.37353515625, -0.09912109375, 0.13525390625, -0.25781250000, 0.00634765625, -0.37304687500, 0.06396484375, 0.37060546875, -0.19189453125, 0.20849609375, 0.20556640625, -0.11474609375, 0.46875000000, -0.02197265625, -0.21093750000, 0.36621093750, -0.42041015625, 0.09375000000, -0.04003906250, -0.08398437500, 0.27783203125, 0.07470703125, -0.00634765625, -0.24560546875, -0.04101562500, 0.01708984375, -0.58642578125, 0.27099609375, -0.12304687500, -0.16406250000, 0.33007812500, -0.41650390625, -0.06103515625, 0.13964843750, 0.31005859375, 0.27246093750, 0.07324218750, 0.19042968750, 0.13769531250, -0.33349609375, -2.31787109375, -0.15478515625, -0.13085937500, -0.11621093750, 0.15869140625, 0.51220703125, 0.26904296875, -0.11279296875, 0.11572265625, 0.42333984375, -0.19580078125, -0.33789062500, -0.27099609375, -0.02636718750, 0.26562500000, -0.25781250000, 0.03125000000, 0.34033203125, -0.16748046875, 0.12841796875, -0.12597656250, -0.31005859375, -0.05273437500, -0.15380859375, -0.10839843750, 0.00634765625, -0.19531250000, -0.14794921875, -0.02001953125, 0.05712890625, 0.00585937500, 0.17724609375, 0.04638671875, -0.30859375000, 0.23193359375, 0.06103515625, -0.31103515625, -0.15527343750, -0.14111328125, -0.30957031250, -0.31542968750, -0.28906250000, 0.17480468750, -0.00488281250, 0.24511718750, 0.03125000000, -0.26367187500, -0.23144531250, 0.34667968750, -0.28369140625, 0.05810546875, -0.30029296875, 0.20751953125, 0.12744140625, -0.53466796875, 0.30078125000, -0.36865234375, 0.09277343750, -0.08496093750, -0.36230468750, -0.20410156250, -0.74609375000, -0.30371093750, 0.09814453125, -0.14892578125, 0.12744140625, -0.45947265625, -0.54589843750, -0.21289062500, -0.58837890625, -0.25878906250, -0.24414062500, -0.46728515625, 0.14257812500, -0.04785156250, -0.35400390625, -0.22607421875, -0.74609375000, 0.28271484375, -0.29443359375, -0.38769531250, 0.31933593750, -0.36376953125, -0.06396484375, -0.33789062500, -0.64306640625, -0.39160156250, -0.20263671875, -0.06250000000, 0.42871093750, -0.48779296875, -0.31054687500, 0.04199218750, -0.33935546875, 0.14306640625, -0.12744140625, 0.11572265625, -0.35449218750, 0.35839843750, -0.15429687500, -0.48535156250, -0.29931640625, 0.06982421875, -0.12890625000, 0.56835937500, -0.36816406250, -0.38134765625, -0.13916015625, 0.27539062500, -0.50683593750, -0.41357421875, -0.11572265625, 0.31152343750, 0.15673828125, 0.22656250000, 0.52246093750, 0.11572265625, -0.64453125000, -0.23828125000, -0.11279296875, 0.15283203125, -0.26269531250, 0.24609375000, -0.14062500000, 0.25292968750, 0.50683593750, 0.33105468750, 0.11328125000, 0.38427734375, -0.16894531250, -1.46826171875, 0.37695312500, -0.24023437500, -0.27099609375, 0.31103515625, 0.07373046875, 0.31982421875, -0.13330078125, -0.19433593750, 0.22265625000, 0.00048828125, 0.01416015625, 0.20947265625, 0.01953125000, 0.26562500000, 0.31542968750, -0.17431640625, -0.10107421875, 0.32519531250, 0.14599609375, -0.08544921875, 0.11816406250, 0.20214843750, -0.04052734375, -0.02490234375, 0.08056640625, -0.68212890625, 0.06347656250, -0.10253906250, -0.12451171875, -0.06201171875, 0.29492187500, 0.06640625000, -0.00732421875, 0.23437500000, -0.08251953125, 0.23828125000, 0.15380859375, 0.14355468750, -0.01806640625, 0.26220703125, 0.23291015625, 0.34228515625, 0.27783203125, 0.03857421875, -0.29589843750, -0.37255859375, 0.08593750000, -0.08105468750, 0.32128906250, 0.19726562500, -0.02880859375, 0.42773437500, -0.00390625000, 0.48437500000, -0.22363281250, -0.19970703125, 0.16210937500, 0.27539062500, -0.06201171875, -0.07031250000, -0.49121093750, 0.25634765625, -0.29589843750, 0.29638671875, 0.24609375000, 0.33544921875, 0.45263671875, -0.33740234375, 0.18798828125, -0.21630859375, -0.34912109375, 0.23095703125, -0.30371093750, -0.19677734375, -0.07958984375, -0.29199218750, -0.02636718750, 0.71142578125, 0.05566406250, -0.37597656250, -0.60986328125, 0.22460937500, -0.28320312500, 0.20654296875, -0.19775390625, -0.18603515625, -0.05468750000, 0.20214843750, 0.38476562500, 0.03125000000, -0.60058593750, -0.45019531250, 0.32373046875, 0.30126953125, -0.00927734375, 0.13037109375, 0.24316406250, 0.00634765625, 0.52832031250, 0.17382812500, -0.24218750000, 0.38134765625, -0.09716796875, -2.13916015625, 0.21582031250, 0.25683593750, -0.27783203125, 0.35986328125, 0.19042968750, 0.15185546875, -0.05615234375, 0.31787109375, 0.31054687500, -0.18554687500, -0.33691406250, -0.21240234375, -0.32421875000, -0.01025390625, 0.21240234375, -0.00195312500, -0.25878906250, 0.16406250000, -0.20703125000, -0.53076171875, -0.31005859375, 0.24804687500, 0.02880859375, 0.05029296875, 0.02539062500, 0.31054687500, 0.26464843750, 0.55664062500, 0.33593750000, -0.16015625000, 0.25439453125, 0.28710937500, 0.13964843750, -0.19042968750, 0.13623046875, 0.24218750000, -0.16406250000, 0.56689453125, 0.36035156250, 0.31591796875, 0.30957031250, -0.27587890625, 0.26904296875, -0.12060546875, 0.11474609375, -0.07519531250, 0.29003906250, -0.05322265625, -0.31250000000, -0.01074218750, -0.15478515625, 0.17333984375, -0.33007812500, 0.33837890625, -0.27246093750, 0.00292968750, 0.03125000000, -0.31494140625, 0.02929687500, -0.03906250000, 0.21826171875, -0.24853515625, -0.10839843750, -0.31640625000, -0.24218750000, -0.10400390625, 0.25146484375, -0.16943359375, -0.06054687500, -0.38281250000, 0.24804687500, 0.21142578125, -0.40820312500, -0.30078125000, -0.02636718750, -0.16113281250, 0.26074218750, 0.15527343750, -0.11035156250, 0.16455078125, -0.30419921875, 0.05273437500, 0.06054687500, -0.05078125000, -0.36865234375, -0.02001953125, 0.20996093750, 0.18261718750, 0.48535156250, 0.12695312500, -0.37060546875, -0.36425781250, -0.15625000000, -0.10693359375, -0.29101562500, 0.09765625000, -0.06591796875, -0.03271484375, -0.01708984375, -0.20654296875, 0.27343750000, -0.46582031250, -0.27490234375, 0.48632812500, 0.10449218750, -0.44335937500, -0.53222656250, 0.38085937500, -0.24560546875, -0.10595703125, -0.18505859375, 0.35156250000, -0.01025390625, -0.04443359375, 0.52832031250, 0.26660156250, -0.39501953125, -0.15234375000, -0.11914062500, -0.31152343750, -0.35400390625, -0.07080078125, -0.07812500000, -0.11523437500, 0.31884765625, 0.13867187500, 0.05810546875, 0.17187500000, 0.21923828125, 0.25292968750, -0.33007812500, -0.32812500000, -0.15429687500, -0.48193359375, -0.24462890625, 0.22656250000, 0.19873046875, 0.33105468750, -0.88183593750, -0.10302734375, -0.21777343750, -0.31005859375, 0.27343750000, -0.03466796875, 0.06738281250, -0.33496093750, -0.07080078125, 0.13330078125, 0.19531250000, -0.38525390625, 0.23828125000, -0.04394531250, 0.35400390625, 0.08105468750, -0.40234375000, -0.00488281250, -0.09326171875, -0.45312500000, 0.32470703125, 0.21826171875, 0.25000000000, 0.28808593750, -0.29833984375, -0.32177734375, -0.00292968750, -0.07275390625, 0.05859375000, -0.36523437500, 0.19482421875, -0.00488281250, -0.61621093750, 0.28466796875, -0.51269531250, -0.24707031250, 0.00390625000, 0.03857421875, 0.01708984375, 0.15527343750, 0.03662109375, -0.29980468750, -0.32470703125, 0.35253906250, -0.25537109375, -0.41601562500, 0.15136718750, -0.32470703125, -0.21972656250, 0.10058593750, -0.46386718750, -0.21093750000, -0.25537109375, -0.51660156250, 0.36474609375, -0.51269531250, -0.04931640625, 0.01757812500, -0.69335937500, -0.41455078125, -0.60791015625};

#endif
