//Numpy array shape [26, 26]
//Min -1.651855468750
//Max 0.630859375000
//Number of zeros 0

#ifndef W4_H_
#define W4_H_

#ifdef __INTELFPGA_COMPILER__
hls_init_on_powerup
#endif
static const weight4_t w4[676] = {0.05175781250, -0.08056640625, -0.03369140625, 0.28613281250, 0.42919921875, 0.24462890625, 0.12109375000, -0.12158203125, 0.02929687500, 0.06884765625, -0.34570312500, -0.13916015625, 0.27734375000, -0.02880859375, -0.12353515625, 0.37939453125, 0.07031250000, 0.33837890625, -0.37158203125, -0.42968750000, 0.00390625000, -0.03857421875, 0.26611328125, 0.38867187500, 0.43798828125, 0.26416015625, -0.25732421875, 0.22070312500, 0.43554687500, -0.08398437500, 0.44531250000, 0.08886718750, 0.28759765625, -0.08544921875, -0.05859375000, 0.27197265625, 0.20263671875, 0.06542968750, 0.19335937500, -0.10693359375, -0.13818359375, 0.42919921875, 0.32714843750, 0.02148437500, -0.26513671875, 0.06689453125, -0.00195312500, 0.46679687500, 0.38085937500, -0.09570312500, 0.00732421875, 0.14501953125, 0.14355468750, -0.38867187500, -0.33740234375, -0.28955078125, -0.56835937500, -0.07617187500, -0.32666015625, 0.32324218750, -0.13623046875, 0.14013671875, -0.11083984375, -0.09179687500, -0.53759765625, -0.23144531250, -0.40087890625, -0.17138671875, 0.14648437500, -0.50439453125, -0.25048828125, 0.08789062500, 0.28613281250, -0.59472656250, -0.33007812500, -0.16406250000, -0.05566406250, 0.02197265625, 0.41699218750, -0.32421875000, -0.18505859375, -0.07714843750, -0.12255859375, -0.06347656250, 0.16113281250, 0.50878906250, 0.45507812500, 0.22216796875, 0.40625000000, 0.08935546875, 0.10937500000, -1.65185546875, 0.20361328125, 0.05468750000, -0.30029296875, -0.17675781250, 0.17187500000, 0.23291015625, -0.01855468750, 0.13525390625, -0.33203125000, 0.10498046875, 0.23144531250, 0.02685546875, 0.01757812500, 0.07128906250, 0.54638671875, 0.35400390625, 0.17773437500, 0.32763671875, 0.28320312500, -0.09667968750, -0.03173828125, -0.19091796875, -0.34912109375, 0.08935546875, 0.55175781250, 0.05175781250, 0.45361328125, 0.43164062500, -0.23242187500, 0.16650390625, -0.14160156250, -0.39111328125, -0.21093750000, 0.33203125000, 0.33691406250, 0.17285156250, 0.19775390625, 0.01464843750, 0.02294921875, -0.32177734375, -0.08251953125, -0.25830078125, -0.05078125000, -0.12597656250, 0.13134765625, -0.12060546875, -0.18847656250, -0.33837890625, -0.27880859375, -0.24951171875, -0.17333984375, 0.01416015625, -0.01660156250, -0.11474609375, -0.33349609375, 0.15478515625, 0.06054687500, 0.17285156250, -0.26171875000, 0.06445312500, -0.10253906250, 0.24560546875, -0.22851562500, -0.19140625000, 0.36181640625, 0.05957031250, 0.18750000000, -0.22412109375, 0.11669921875, 0.25000000000, 0.33398437500, 0.35400390625, 0.26513671875, 0.09130859375, 0.12304687500, 0.31884765625, 0.01171875000, -1.52490234375, -0.27685546875, -0.15673828125, 0.08837890625, -0.01318359375, 0.37207031250, 0.00244140625, -0.33837890625, -0.21191406250, -0.24658203125, 0.25195312500, 0.12646484375, 0.39599609375, -0.61523437500, -0.19775390625, -0.46044921875, -0.24267578125, -0.50781250000, -0.16503906250, -0.03466796875, -0.33886718750, -0.20996093750, 0.24072265625, 0.07275390625, 0.07666015625, 0.03466796875, 0.51953125000, -0.27783203125, -0.01513671875, 0.15576171875, 0.12548828125, -0.17285156250, -0.16503906250, 0.38037109375, -0.36669921875, 0.09863281250, -0.54345703125, 0.04345703125, -0.73828125000, 0.20410156250, -0.25537109375, -0.07714843750, 0.14599609375, -0.19189453125, -0.07714843750, 0.13476562500, -0.22705078125, 0.17089843750, -0.36279296875, -0.34082031250, -0.41455078125, 0.33056640625, 0.59228515625, -0.32421875000, 0.06347656250, -0.50146484375, -0.19873046875, -0.53173828125, -0.23388671875, -0.78466796875, -0.05322265625, -0.28417968750, 0.49951171875, -0.31835937500, 0.31933593750, -0.21240234375, -0.37451171875, -0.10009765625, -0.19921875000, -0.23779296875, -0.26269531250, 0.01123046875, -0.13671875000, 0.06738281250, 0.10791015625, -0.31396484375, 0.21142578125, -0.57861328125, -0.15625000000, 0.04833984375, -0.05175781250, 0.00146484375, -0.31982421875, 0.00830078125, 0.13330078125, 0.23046875000, -0.12500000000, -0.02929687500, -0.46093750000, -0.11083984375, 0.26074218750, -0.11083984375, 0.43994140625, 0.63085937500, -0.61328125000, 0.42919921875, -0.23535156250, 0.14599609375, -0.01513671875, 0.33740234375, 0.00097656250, -0.11523437500, -0.19921875000, 0.56250000000, -0.08154296875, 0.05419921875, 0.10986328125, -0.03076171875, 0.20898437500, 0.24365234375, -0.02587890625, 0.02099609375, 0.37353515625, 0.54003906250, -0.21972656250, 0.49511718750, -0.20458984375, -0.03076171875, 0.30810546875, 0.15966796875, -0.52734375000, 0.37451171875, 0.00146484375, 0.19531250000, -0.01464843750, 0.03564453125, -0.16650390625, 0.15039062500, 0.04541015625, 0.62060546875, -0.30419921875, 0.25146484375, 0.40576171875, 0.17138671875, 0.39062500000, -0.22851562500, -0.22216796875, 0.29296875000, -0.12597656250, 0.31152343750, -0.07421875000, 0.36523437500, 0.04882812500, -0.21630859375, 0.20068359375, 0.56445312500, -0.28808593750, 0.05615234375, 0.21289062500, 0.39697265625, 0.13037109375, 0.01416015625, -0.16699218750, -0.22509765625, -0.31738281250, 0.52050781250, 0.23632812500, 0.38427734375, 0.29101562500, -0.01513671875, 0.19628906250, 0.07568359375, -0.07958984375, -0.07910156250, -0.04345703125, 0.35888671875, -0.07470703125, -0.04345703125, -0.29638671875, -0.21826171875, 0.31884765625, 0.19287109375, -0.52001953125, 0.24511718750, -0.07470703125, 0.40185546875, 0.11474609375, 0.28857421875, -0.21386718750, -0.18310546875, 0.06103515625, 0.19628906250, 0.29785156250, -0.04052734375, 0.13232421875, 0.13281250000, 0.10986328125, -0.03125000000, -0.01171875000, 0.20849609375, 0.17529296875, -0.06250000000, -0.33837890625, -0.01660156250, 0.29541015625, 0.45849609375, 0.27685546875, -0.05468750000, -0.06494140625, 0.17919921875, -0.07861328125, -0.08447265625, 0.17529296875, 0.28808593750, 0.20947265625, 0.30517578125, 0.34033203125, 0.27441406250, -0.78613281250, 0.22363281250, -0.03857421875, -0.24267578125, -0.19433593750, 0.19873046875, 0.47021484375, -0.24023437500, -0.06884765625, 0.18847656250, -0.15136718750, 0.13964843750, 0.36474609375, 0.29687500000, 0.45751953125, 0.38378906250, 0.00390625000, -0.00097656250, -0.22900390625, 0.29589843750, 0.24755859375, 0.28857421875, -0.24853515625, 0.06982421875, -0.27099609375, 0.59619140625, -0.17626953125, 0.19531250000, -0.08789062500, 0.11523437500, 0.31689453125, -0.00439453125, -0.31494140625, 0.35400390625, -0.02050781250, 0.06835937500, -0.69482421875, 0.12207031250, 0.02392578125, 0.20849609375, 0.19628906250, -0.39843750000, -0.21289062500, -0.32324218750, 0.16992187500, -0.19140625000, 0.49658203125, 0.00244140625, 0.26220703125, -0.02880859375, 0.12109375000, -0.08789062500, -0.16601562500, -0.12402343750, 0.22900390625, 0.35546875000, -0.39111328125, 0.25878906250, 0.21582031250, 0.02050781250, -0.44091796875, -0.07031250000, -0.25390625000, -0.16308593750, -0.17333984375, -0.30029296875, -0.36181640625, -0.30566406250, -0.31542968750, -0.15478515625, 0.04785156250, 0.24707031250, 0.13037109375, 0.07958984375, 0.30371093750, -0.16308593750, -0.14697265625, -0.18603515625, 0.11083984375, -0.32275390625, -0.11230468750, 0.08935546875, -0.15625000000, -0.17626953125, -0.29541015625, 0.01171875000, -0.15234375000, -0.09912109375, -0.19726562500, 0.13818359375, 0.17236328125, -0.26513671875, -0.08691406250, -0.14892578125, -0.34082031250, -0.13916015625, -0.12646484375, -0.31152343750, 0.00683593750, 0.17333984375, 0.30810546875, -0.05419921875, 0.02050781250, -0.32910156250, 0.31152343750, 0.28613281250, 0.26318359375, -0.10205078125, -0.31005859375, -0.17187500000, 0.00146484375, -0.34814453125, 0.02001953125, -0.27978515625, -0.11083984375, 0.31347656250, 0.32128906250, -0.54052734375, -0.19824218750, -0.50585937500, -0.18408203125, -0.06445312500, -0.41699218750, -0.19677734375, 0.19433593750, -0.24365234375, 0.14111328125, 0.16748046875, -0.24755859375, -0.43798828125, 0.33984375000, 0.02587890625, -0.06005859375, 0.27099609375, -0.16943359375, -0.11914062500, -0.35205078125, 0.42529296875, -0.15136718750, -0.39453125000, -0.26513671875, -0.44287109375, -0.44482421875, -0.01025390625, 0.37011718750, 0.21777343750, 0.34326171875, 0.39111328125, 0.46337890625, 0.01220703125, -0.55468750000, -0.16308593750, -0.32958984375, -0.17187500000, -0.15136718750, -0.00781250000, -0.29736328125, -0.02050781250, 0.05273437500, -0.04638671875, 0.28222656250, -0.54980468750, 0.06396484375, 0.20605468750, 0.42871093750, 0.42773437500, -0.00927734375, -0.12695312500, 0.55322265625, 0.45898437500, 0.08886718750, -0.11621093750, -0.26025390625, -0.15771484375, 0.18457031250, -0.20849609375, 0.39550781250, 0.35449218750, -0.04150390625, 0.58349609375, 0.38623046875, -0.07861328125, -1.09667968750, 0.22412109375, -0.15771484375, -0.04296875000, -0.16113281250, 0.20800781250, 0.06347656250, 0.22998046875, -0.07373046875, 0.08691406250, -0.00390625000, 0.07421875000, 0.07128906250, -0.69433593750, -0.29394531250, 0.01855468750, 0.06445312500, -0.44677734375, -0.05810546875, -0.35400390625, -0.04003906250, -0.07031250000, 0.17333984375, 0.08984375000, -0.45654296875, -0.43115234375, 0.62207031250, -0.34863281250, -0.17675781250, 0.55517578125, -0.51562500000, -0.12451171875, -0.33154296875, 0.14648437500, 0.00292968750, -0.47021484375, -0.68310546875, -0.09179687500, -0.53906250000, -0.11962890625, -0.04296875000, 0.08349609375, 0.10742187500, -0.18945312500, 0.32958984375, 0.09130859375, 0.43652343750, 0.09667968750, 0.02246093750, 0.44335937500, 0.40283203125, 0.05371093750, -0.81298828125, -0.18017578125, 0.07519531250, -0.12304687500, 0.25146484375, 0.40820312500, 0.20800781250, -0.14111328125, -0.17773437500, 0.27392578125, 0.00146484375, 0.24218750000, 0.11962890625, 0.29345703125, 0.00781250000, 0.21728515625, 0.45410156250, 0.15576171875, 0.02392578125, -0.13525390625, -0.09082031250, -0.32519531250, -0.05957031250, -0.54931640625, 0.18945312500, -0.11816406250, 0.34326171875, -0.36669921875, -0.45263671875, -0.45556640625, 0.13818359375, -0.18896484375, 0.09375000000, -0.81591796875, 0.07128906250, 0.17871093750, 0.39648437500, -0.17968750000, -0.14062500000, -0.09472656250, -0.16162109375, -0.35156250000, -0.11376953125, -0.38378906250, -0.02880859375, -0.09375000000, 0.06884765625, 0.50390625000, 0.40234375000, 0.61718750000, 0.24609375000, -0.55419921875, 0.40625000000, -0.39355468750, 0.16259765625, 0.10595703125, -0.40429687500, 0.51171875000, 0.03222656250, 0.21386718750, -0.15087890625, 0.03466796875, -0.10839843750, -0.28564453125, -0.27441406250};

#endif
